svm_type one_class
kernel_type rbf
gamma 0.002
nr_class 2
total_sv 28
rho 27.9996
SV
1 0:0.0048076923 1:0 2:0 3:0.0048076923 4:0 5:0 6:0 7:0 8:0 9:0 10:0 11:0 12:0.0048076923 13:0 14:0.0048076923 15:0 16:0 17:0 18:0.0096153846 19:0.0048076923 20:0 21:0 22:0 23:0 24:0 25:0 26:0 27:0.0048076923 28:0 29:0.0048076923 30:0 31:0 32:0 33:0 34:0 35:0.0048076923 36:0.0048076923 37:0 38:0 39:0 40:0 41:0 42:0.0096153846 43:0 44:0 45:0 46:0 47:0 48:0.0096153846 49:0 50:0 51:0 52:0 53:0 54:0 55:0.0048076923 56:0 57:0 58:0.0096153846 59:0.0048076923 60:0.014423077 61:0.0096153846 62:0 63:0 64:0 65:0 66:0 67:0.0096153846 68:0.0048076923 69:0.0048076923 70:0 71:0 72:0.0048076923 73:0.014423077 74:0 75:0 76:0 77:0.0048076923 78:0.0048076923 79:0 80:0 81:0 82:0 83:0.014423077 84:0 85:0 86:0 87:0 88:0 89:0 90:0.0048076923 91:0.0048076923 92:0.0048076923 93:0 94:0.0096153846 95:0 96:0 97:0 98:0.0048076923 99:0.0048076923 100:0 101:0 102:0 103:0 104:0.0096153846 105:0.014423077 106:0.0096153846 107:0.0048076923 108:0 109:0.0048076923 110:0 111:0 112:0 113:0 114:0.014423077 115:0 116:0 117:0 118:0 119:0 120:0.0048076923 121:0.0048076923 122:0 123:0 124:0 125:0 126:0 127:0 
1 0:0 1:0.0023752969 2:0.00079176564 3:0.00039588282 4:0.004354711 5:0.0019794141 6:0.004354711 7:0 8:0.0063341251 9:0.0035629454 10:0.0015835313 11:0.0031670625 12:0.0019794141 13:0.0023752969 14:0.0011876485 15:0.0059382423 16:0.00079176564 17:0.0015835313 18:0.0023752969 19:0.0027711797 20:0.0019794141 21:0.0023752969 22:0.004354711 23:0 24:0.0047505938 25:0.0015835313 26:0.0011876485 27:0.004354711 28:0.0011876485 29:0.0019794141 30:0.0015835313 31:0.0023752969 32:0.0023752969 33:0.0051464766 34:0.0015835313 35:0.00039588282 36:0.0023752969 37:0.0011876485 38:0.00079176564 39:0.0011876485 40:0.0011876485 41:0.00079176564 42:0.0015835313 43:0.0091053048 44:0.0019794141 45:0.00079176564 46:0.0023752969 47:0.0063341251 48:0.00079176564 49:0.0023752969 50:0.0019794141 51:0.0031670625 52:0 53:0.00039588282 54:0.0015835313 55:0.0015835313 56:0.00079176564 57:0.00039588282 58:0.0023752969 59:0.0027711797 60:0.0015835313 61:0.0011876485 62:0.0019794141 63:0.0019794141 64:0.0051464766 65:0.0047505938 66:0.0019794141 67:0.0039588282 68:0.00039588282 69:0.00039588282 70:0.00079176564 71:0.00079176564 72:0.0031670625 73:0 74:0.0039588282 75:0.0047505938 76:0.0039588282 77:0.00079176564 78:0.0031670625 79:0.0011876485 80:0.00039588282 81:0.0011876485 82:0.0015835313 83:0.0011876485 84:0.0019794141 85:0.0011876485 86:0.0019794141 87:0.0039588282 88:0.0015835313 89:0.0011876485 90:0.00079176564 91:0.00079176564 92:0.0023752969 93:0.0051464766 94:0.0011876485 95:0.0011876485 96:0.00079176564 97:0.0011876485 98:0.0011876485 99:0.0023752969 100:0.0019794141 101:0.0031670625 102:0.0023752969 103:0.0023752969 104:0.00039588282 105:0 106:0.0023752969 107:0.0075217736 108:0.0015835313 109:0.0035629454 110:0.0031670625 111:0.0011876485 112:0.0031670625 113:0.0023752969 114:0.00039588282 115:0.0011876485 116:0.0011876485 117:0.0027711797 118:0.0015835313 119:0.00039588282 120:0.0031670625 121:0 122:0.0051464766 123:0.0019794141 124:0.00079176564 125:0.00079176564 126:0.0039588282 127:0.0039588282 
1 0:0 1:0 2:0 3:0 4:0 5:0 6:0 7:0 8:0 9:0 10:0 11:0 12:0 13:0 14:0 15:0 16:0 17:0 18:0 19:0 20:0 21:0 22:0 23:0 24:0 25:0 26:0 27:0 28:0 29:0 30:0 31:0 32:0 33:0 34:0 35:0 36:0 37:0 38:0 39:0 40:0 41:0 42:0 43:0 44:0 45:0 46:0 47:0 48:0 49:0 50:0 51:0 52:0 53:0 54:0 55:0 56:0 57:0 58:0 59:0 60:0 61:0 62:0 63:0 64:0 65:0 66:0 67:0 68:0.060606061 69:0 70:0 71:0 72:0 73:0.03030303 74:0 75:0 76:0 77:0 78:0 79:0 80:0 81:0 82:0 83:0.03030303 84:0 85:0 86:0 87:0 88:0 89:0 90:0 91:0 92:0 93:0 94:0 95:0 96:0 97:0 98:0 99:0 100:0 101:0 102:0 103:0 104:0.060606061 105:0 106:0 107:0 108:0 109:0 110:0 111:0 112:0 113:0 114:0 115:0 116:0 117:0 118:0 119:0 120:0 121:0 122:0 123:0 124:0 125:0 126:0 127:0 
1 0:0 1:0.0030769231 2:0.0030769231 3:0 4:0 5:0 6:0 7:0 8:0.0030769231 9:0 10:0 11:0.0061538462 12:0 13:0 14:0 15:0.012307692 16:0 17:0 18:0.0030769231 19:0.0030769231 20:0 21:0 22:0 23:0 24:0 25:0.0030769231 26:0 27:0.0030769231 28:0 29:0.0030769231 30:0 31:0 32:0 33:0.0030769231 34:0.0030769231 35:0 36:0 37:0.0030769231 38:0.0030769231 39:0 40:0 41:0.0030769231 42:0 43:0.0061538462 44:0 45:0 46:0 47:0.0030769231 48:0 49:0 50:0 51:0 52:0 53:0.0061538462 54:0 55:0.0030769231 56:0 57:0 58:0.018461538 59:0 60:0.0030769231 61:0.0030769231 62:0 63:0 64:0 65:0.0092307692 66:0 67:0.0061538462 68:0 69:0.0061538462 70:0 71:0 72:0 73:0.0061538462 74:0 75:0 76:0.0061538462 77:0 78:0 79:0.0030769231 80:0.0030769231 81:0.0092307692 82:0 83:0.0030769231 84:0.0030769231 85:0 86:0 87:0.0030769231 88:0 89:0.0030769231 90:0 91:0 92:0 93:0 94:0.0061538462 95:0 96:0.0030769231 97:0.0061538462 98:0.0030769231 99:0 100:0 101:0 102:0.0030769231 103:0.0061538462 104:0.018461538 105:0 106:0 107:0.0030769231 108:0.0030769231 109:0 110:0 111:0.0030769231 112:0.0092307692 113:0 114:0.0061538462 115:0 116:0.0030769231 117:0.0030769231 118:0.0030769231 119:0.0030769231 120:0.0030769231 121:0 122:0 123:0.0030769231 124:0 125:0 126:0 127:0.0030769231 
1 0:0 1:0 2:0.0035714286 3:0 4:0.0071428571 5:0 6:0 7:0 8:0 9:0 10:0.014285714 11:0 12:0.0035714286 13:0 14:0 15:0.0035714286 16:0 17:0 18:0.0071428571 19:0.0035714286 20:0 21:0 22:0.010714286 23:0 24:0 25:0.0071428571 26:0 27:0.0035714286 28:0.0035714286 29:0 30:0.0035714286 31:0 32:0 33:0.0071428571 34:0 35:0 36:0 37:0 38:0 39:0 40:0 41:0 42:0.0035714286 43:0.0071428571 44:0 45:0 46:0 47:0.0035714286 48:0 49:0.0035714286 50:0 51:0 52:0 53:0 54:0 55:0 56:0 57:0 58:0 59:0.010714286 60:0 61:0 62:0 63:0.0035714286 64:0 65:0 66:0 67:0 68:0 69:0.0071428571 70:0 71:0 72:0 73:0 74:0 75:0.0035714286 76:0 77:0 78:0.0071428571 79:0 80:0 81:0 82:0.0035714286 83:0.0071428571 84:0.0035714286 85:0 86:0 87:0.0071428571 88:0 89:0 90:0 91:0.017857143 92:0.0035714286 93:0 94:0.0035714286 95:0 96:0 97:0 98:0 99:0.010714286 100:0 101:0 102:0.0035714286 103:0.0035714286 104:0.0071428571 105:0 106:0.0035714286 107:0 108:0 109:0.0035714286 110:0.0071428571 111:0 112:0.010714286 113:0 114:0 115:0 116:0.0035714286 117:0.0035714286 118:0 119:0.0035714286 120:0.0035714286 121:0 122:0 123:0.0035714286 124:0.0035714286 125:0 126:0 127:0 
1 0:0 1:0.0002140411 2:0 3:0.00042808219 4:0.020547945 5:0 6:0.00042808219 7:0.0010702055 8:0 9:0.0002140411 10:0.00042808219 11:0 12:0.0014982877 13:0.0010702055 14:0 15:0.0029965753 16:0.0002140411 17:0 18:0.0002140411 19:0.0002140411 20:0.0023544521 21:0.0029965753 22:0.004494863 23:0 24:0.011986301 25:0.0002140411 26:0 27:0.0012842466 28:0.00064212329 29:0.00042808219 30:0 31:0 32:0 33:0.002140411 34:0.00085616438 35:0.0040667808 36:0 37:0 38:0.00042808219 39:0 40:0 41:0 42:0.00064212329 43:0.0070633562 44:0.0014982877 45:0 46:0 47:0.011344178 48:0 49:0.0012842466 50:0.00064212329 51:0.00064212329 52:0 53:0 54:0 55:0 56:0 57:0 58:0 59:0.00042808219 60:0 61:0.00085616438 62:0.01369863 63:0 64:0.0017123288 65:0.004494863 66:0 67:0.0017123288 68:0 69:0 70:0 71:0 72:0.015410959 73:0 74:0.00064212329 75:0.0023544521 76:0 77:0 78:0.014340753 79:0.0002140411 80:0 81:0.00042808219 82:0.0010702055 83:0.0002140411 84:0.0002140411 85:0.0002140411 86:0 87:0 88:0 89:0.0092037671 90:0.00042808219 91:0 92:0.0002140411 93:0.00085616438 94:0 95:0 96:0.0002140411 97:0 98:0.00085616438 99:0.019263699 100:0.00042808219 101:0.0002140411 102:0.00085616438 103:0 104:0 105:0.00042808219 106:0.0002140411 107:0.071703767 108:0.00064212329 109:0.00085616438 110:0 111:0.0012842466 112:0 113:0.0012842466 114:0 115:0.0064212329 116:0.00064212329 117:0.0002140411 118:0 119:0 120:0.0049229452 121:0 122:0.0017123288 123:0.00042808219 124:0 125:0.00064212329 126:0.0012842466 127:0.0029965753 
1 0:0 1:0 2:0 3:0 4:0.01754386 5:0 6:0 7:0 8:0.0058479532 9:0.0058479532 10:0 11:0 12:0.0058479532 13:0 14:0.011695906 15:0 16:0 17:0 18:0 19:0 20:0 21:0 22:0 23:0 24:0.0058479532 25:0 26:0 27:0 28:0 29:0 30:0 31:0 32:0 33:0 34:0 35:0 36:0.0058479532 37:0 38:0.0058479532 39:0.0058479532 40:0 41:0 42:0 43:0 44:0 45:0 46:0 47:0.0058479532 48:0 49:0.0058479532 50:0 51:0 52:0 53:0 54:0 55:0.0058479532 56:0.0058479532 57:0 58:0 59:0 60:0 61:0.0058479532 62:0 63:0 64:0.0058479532 65:0 66:0 67:0.011695906 68:0.0058479532 69:0.011695906 70:0 71:0 72:0 73:0 74:0 75:0 76:0 77:0.0058479532 78:0 79:0 80:0.0058479532 81:0 82:0 83:0.011695906 84:0 85:0 86:0 87:0.0058479532 88:0 89:0 90:0 91:0 92:0 93:0 94:0 95:0 96:0 97:0.011695906 98:0 99:0 100:0 101:0 102:0.0058479532 103:0.0058479532 104:0.0058479532 105:0 106:0 107:0.0058479532 108:0.0058479532 109:0 110:0 111:0 112:0.0058479532 113:0 114:0 115:0.0058479532 116:0 117:0 118:0 119:0 120:0.0058479532 121:0 122:0 123:0.0058479532 124:0.011695906 125:0 126:0 127:0 
1 0:0 1:0.0023282887 2:0 3:0 4:0.0011641444 5:0.0011641444 6:0.0011641444 7:0.0023282887 8:0 9:0 10:0.0011641444 11:0.012805588 12:0.0011641444 13:0.0046565774 14:0.0023282887 15:0 16:0 17:0 18:0.0011641444 19:0.0046565774 20:0.0011641444 21:0.015133877 22:0 23:0 24:0 25:0 26:0 27:0 28:0 29:0.0011641444 30:0 31:0.0081490105 32:0.0023282887 33:0.0046565774 34:0 35:0.0011641444 36:0 37:0.0093131548 38:0.0011641444 39:0 40:0 41:0 42:0.0011641444 43:0.0011641444 44:0 45:0 46:0 47:0.050058207 48:0.0046565774 49:0.0034924331 50:0.016298021 51:0.0011641444 52:0 53:0 54:0 55:0 56:0 57:0 58:0.0023282887 59:0.0011641444 60:0.0023282887 61:0 62:0.0011641444 63:0 64:0.0034924331 65:0.0023282887 66:0.0011641444 67:0.0034924331 68:0 69:0 70:0.0011641444 71:0 72:0.0011641444 73:0 74:0.0011641444 75:0 76:0.0011641444 77:0 78:0 79:0.0046565774 80:0.0011641444 81:0.0034924331 82:0.0011641444 83:0.0011641444 84:0 85:0 86:0.0023282887 87:0.022118743 88:0.0034924331 89:0.0011641444 90:0 91:0.0023282887 92:0 93:0.0069848661 94:0 95:0.0046565774 96:0.0046565774 97:0.0011641444 98:0.0069848661 99:0.0093131548 100:0 101:0.0023282887 102:0.0023282887 103:0.0011641444 104:0.0011641444 105:0.0011641444 106:0.0023282887 107:0.0046565774 108:0 109:0.012805588 110:0.025611176 111:0 112:0 113:0.0046565774 114:0.0011641444 115:0 116:0.0046565774 117:0 118:0 119:0.0011641444 120:0.0011641444 121:0 122:0.017462165 123:0.0023282887 124:0 125:0 126:0.0023282887 127:0 
1 0:0 1:0 2:0 3:0.0067114094 4:0.013422819 5:0 6:0 7:0 8:0 9:0 10:0 11:0.0067114094 12:0 13:0 14:0.0067114094 15:0.0067114094 16:0 17:0 18:0 19:0 20:0.0067114094 21:0 22:0 23:0 24:0 25:0 26:0 27:0 28:0.0067114094 29:0.0067114094 30:0 31:0 32:0 33:0 34:0 35:0 36:0.013422819 37:0 38:0 39:0 40:0 41:0 42:0 43:0.0067114094 44:0 45:0 46:0 47:0 48:0.0067114094 49:0 50:0 51:0 52:0 53:0 54:0 55:0.0067114094 56:0 57:0 58:0.013422819 59:0 60:0.013422819 61:0.0067114094 62:0 63:0 64:0 65:0 66:0 67:0 68:0 69:0.013422819 70:0 71:0 72:0 73:0.0067114094 74:0 75:0 76:0 77:0 78:0 79:0 80:0 81:0 82:0 83:0 84:0.0067114094 85:0 86:0 87:0 88:0 89:0 90:0 91:0 92:0 93:0 94:0 95:0 96:0 97:0 98:0.013422819 99:0 100:0 101:0 102:0.0067114094 103:0.020134228 104:0.0067114094 105:0 106:0 107:0.0067114094 108:0 109:0 110:0 111:0 112:0.020134228 113:0 114:0.0067114094 115:0 116:0 117:0 118:0 119:0 120:0 121:0 122:0 123:0 124:0 125:0 126:0 127:0 
1 0:0 1:0 2:0 3:0 4:0.01754386 5:0 6:0 7:0.0087719298 8:0.0087719298 9:0.0087719298 10:0 11:0 12:0 13:0.0087719298 14:0 15:0 16:0 17:0 18:0 19:0 20:0.026315789 21:0 22:0 23:0 24:0 25:0 26:0 27:0 28:0 29:0 30:0 31:0 32:0 33:0 34:0 35:0 36:0 37:0 38:0 39:0 40:0 41:0 42:0 43:0.01754386 44:0 45:0 46:0 47:0.01754386 48:0.0087719298 49:0 50:0.01754386 51:0 52:0 53:0 54:0.0087719298 55:0.0087719298 56:0 57:0 58:0 59:0 60:0 61:0 62:0 63:0 64:0 65:0.0087719298 66:0 67:0 68:0 69:0 70:0 71:0 72:0.01754386 73:0 74:0 75:0 76:0 77:0 78:0 79:0 80:0 81:0 82:0.0087719298 83:0 84:0 85:0 86:0 87:0 88:0 89:0 90:0 91:0 92:0 93:0 94:0 95:0 96:0 97:0 98:0.0087719298 99:0 100:0 101:0.0087719298 102:0 103:0 104:0 105:0 106:0 107:0 108:0 109:0 110:0 111:0 112:0 113:0 114:0.0087719298 115:0 116:0 117:0 118:0 119:0 120:0.043859649 121:0 122:0 123:0 124:0 125:0 126:0 127:0 
1 0:0 1:0.0012285012 2:0.0024570025 3:0 4:0 5:0.0061425061 6:0 7:0.0049140049 8:0 9:0.0012285012 10:0.0012285012 11:0.0024570025 12:0.0061425061 13:0.0012285012 14:0 15:0 16:0 17:0 18:0 19:0.0036855037 20:0.0012285012 21:0.0049140049 22:0.0012285012 23:0 24:0.0012285012 25:0 26:0 27:0.0024570025 28:0 29:0.0061425061 30:0 31:0.0012285012 32:0.0012285012 33:0.0036855037 34:0.0036855037 35:0.0012285012 36:0.0024570025 37:0 38:0 39:0 40:0 41:0 42:0.0012285012 43:0.0012285012 44:0.0024570025 45:0 46:0 47:0.023341523 48:0.0012285012 49:0.0024570025 50:0.012285012 51:0 52:0 53:0 54:0 55:0.0012285012 56:0 57:0 58:0.0024570025 59:0 60:0 61:0.0012285012 62:0.0012285012 63:0 64:0 65:0.0024570025 66:0.0012285012 67:0.0024570025 68:0 69:0 70:0 71:0.0012285012 72:0.0024570025 73:0 74:0.0012285012 75:0.0024570025 76:0.0049140049 77:0 78:0.0012285012 79:0.0012285012 80:0 81:0.0036855037 82:0.0024570025 83:0.0036855037 84:0.0024570025 85:0.0024570025 86:0.0012285012 87:0.0012285012 88:0 89:0 90:0.0012285012 91:0.0012285012 92:0.0012285012 93:0.011056511 94:0 95:0.0012285012 96:0.031941032 97:0 98:0.0012285012 99:0.0073710074 100:0.0036855037 101:0.011056511 102:0.0012285012 103:0 104:0.0012285012 105:0 106:0.0024570025 107:0.0049140049 108:0.0024570025 109:0.0036855037 110:0.0073710074 111:0 112:0.0012285012 113:0.012285012 114:0 115:0 116:0.0036855037 117:0.0036855037 118:0.0024570025 119:0 120:0.0012285012 121:0.0012285012 122:0.0073710074 123:0.0012285012 124:0 125:0 126:0 127:0 
1 0:0 1:0 2:0.0035335689 3:0 4:0.0088339223 5:0 6:0.0088339223 7:0 8:0 9:0.0017667845 10:0.0035335689 11:0 12:0.0070671378 13:0 14:0 15:0.0035335689 16:0 17:0.0017667845 18:0.0088339223 19:0.0035335689 20:0 21:0.0088339223 22:0 23:0 24:0 25:0.0017667845 26:0 27:0.0017667845 28:0 29:0.0017667845 30:0 31:0 32:0 33:0.0070671378 34:0 35:0 36:0 37:0.0053003534 38:0 39:0 40:0 41:0 42:0.0017667845 43:0 44:0.0035335689 45:0 46:0.0017667845 47:0.0035335689 48:0 49:0 50:0.0070671378 51:0.0035335689 52:0 53:0 54:0 55:0.0053003534 56:0 57:0 58:0.0017667845 59:0 60:0 61:0.0017667845 62:0 63:0.0035335689 64:0.0017667845 65:0.0017667845 66:0.0035335689 67:0.010600707 68:0 69:0.0017667845 70:0 71:0.0017667845 72:0.0070671378 73:0.0017667845 74:0.0017667845 75:0.0088339223 76:0 77:0.0017667845 78:0.0088339223 79:0 80:0 81:0.0017667845 82:0 83:0.0088339223 84:0.0017667845 85:0 86:0.0035335689 87:0.0035335689 88:0 89:0 90:0.0053003534 91:0.0035335689 92:0 93:0.0017667845 94:0 95:0 96:0 97:0.0017667845 98:0.0035335689 99:0.0053003534 100:0.0053003534 101:0 102:0.0017667845 103:0 104:0.0035335689 105:0 106:0.0035335689 107:0 108:0.0035335689 109:0.0017667845 110:0 111:0.0035335689 112:0.0070671378 113:0 114:0 115:0 116:0.0053003534 117:0 118:0 119:0.0035335689 120:0 121:0 122:0.0017667845 123:0.0017667845 124:0 125:0 126:0.0035335689 127:0 
1 0:0 1:0 2:0 3:0 4:0.0040983607 5:0 6:0 7:0.0081967213 8:0 9:0 10:0 11:0 12:0 13:0.0040983607 14:0 15:0 16:0 17:0 18:0 19:0 20:0.0040983607 21:0.0040983607 22:0 23:0 24:0 25:0.0040983607 26:0.0040983607 27:0 28:0 29:0.0040983607 30:0 31:0 32:0.0040983607 33:0.0040983607 34:0.0040983607 35:0 36:0 37:0 38:0 39:0 40:0 41:0 42:0 43:0.094262295 44:0 45:0 46:0 47:0 48:0 49:0 50:0 51:0 52:0 53:0 54:0.0040983607 55:0 56:0 57:0 58:0.0040983607 59:0 60:0 61:0.0040983607 62:0 63:0 64:0 65:0.012295082 66:0 67:0 68:0 69:0 70:0 71:0 72:0.0040983607 73:0 74:0 75:0 76:0 77:0 78:0 79:0 80:0 81:0 82:0 83:0.0081967213 84:0.012295082 85:0.0040983607 86:0 87:0.0040983607 88:0 89:0.0081967213 90:0.0040983607 91:0 92:0 93:0 94:0 95:0 96:0.028688525 97:0 98:0.0081967213 99:0.0040983607 100:0 101:0.0081967213 102:0.0040983607 103:0 104:0 105:0.0040983607 106:0.0040983607 107:0 108:0 109:0.028688525 110:0.012295082 111:0 112:0 113:0.0040983607 114:0 115:0 116:0.0040983607 117:0 118:0 119:0 120:0 121:0 122:0.024590164 123:0.0040983607 124:0 125:0 126:0 127:0 
1 0:0 1:0 2:0 3:0 4:0 5:0 6:0 7:0 8:0 9:0 10:0 11:0 12:0 13:0 14:0 15:0 16:0 17:0 18:0 19:0.090909091 20:0 21:0.045454545 22:0 23:0 24:0 25:0 26:0 27:0 28:0 29:0 30:0 31:0 32:0 33:0 34:0 35:0 36:0 37:0 38:0 39:0 40:0 41:0 42:0 43:0.13636364 44:0 45:0 46:0 47:0 48:0 49:0 50:0 51:0 52:0 53:0 54:0 55:0 56:0 57:0 58:0.045454545 59:0 60:0 61:0 62:0 63:0 64:0 65:0 66:0 67:0.045454545 68:0 69:0 70:0 71:0 72:0 73:0 74:0 75:0 76:0 77:0 78:0 79:0 80:0 81:0 82:0 83:0 84:0 85:0 86:0 87:0 88:0 89:0 90:0 91:0 92:0 93:0 94:0 95:0 96:0 97:0 98:0 99:0 100:0 101:0 102:0 103:0 104:0 105:0 106:0 107:0 108:0 109:0 110:0 111:0 112:0 113:0 114:0.045454545 115:0 116:0 117:0 118:0 119:0 120:0.090909091 121:0 122:0 123:0 124:0 125:0 126:0 127:0 
1 0:0 1:0 2:0 3:0 4:0 5:0.0046082949 6:0 7:0.0046082949 8:0 9:0.0092165899 10:0.0092165899 11:0 12:0 13:0 14:0.0046082949 15:0 16:0.0046082949 17:0 18:0 19:0.0046082949 20:0.0046082949 21:0 22:0 23:0 24:0 25:0 26:0.0046082949 27:0 28:0.013824885 29:0.0046082949 30:0 31:0.0046082949 32:0 33:0.0046082949 34:0 35:0.0046082949 36:0.013824885 37:0 38:0 39:0 40:0 41:0 42:0 43:0 44:0 45:0 46:0 47:0.0092165899 48:0.013824885 49:0.0046082949 50:0 51:0 52:0 53:0 54:0 55:0.013824885 56:0 57:0 58:0.013824885 59:0 60:0 61:0 62:0 63:0.0046082949 64:0 65:0 66:0 67:0.0046082949 68:0 69:0 70:0 71:0 72:0 73:0 74:0 75:0.0046082949 76:0 77:0 78:0 79:0.0046082949 80:0.013824885 81:0.013824885 82:0 83:0.0046082949 84:0 85:0 86:0 87:0.0046082949 88:0.0046082949 89:0 90:0 91:0 92:0 93:0 94:0.0046082949 95:0 96:0.041474654 97:0 98:0 99:0 100:0 101:0 102:0 103:0 104:0.0046082949 105:0 106:0 107:0 108:0 109:0.02764977 110:0 111:0 112:0 113:0.0046082949 114:0.013824885 115:0 116:0 117:0.0046082949 118:0 119:0 120:0 121:0 122:0.0046082949 123:0 124:0 125:0 126:0 127:0 
1 0:0 1:0 2:0 3:0 4:0.013782542 5:0.0061255743 6:0 7:0 8:0.0030627871 9:0 10:0.0015313936 11:0 12:0 13:0 14:0 15:0.0061255743 16:0 17:0 18:0 19:0 20:0 21:0 22:0.0030627871 23:0 24:0 25:0 26:0 27:0 28:0 29:0.0015313936 30:0 31:0 32:0 33:0.0015313936 34:0 35:0 36:0.0030627871 37:0.013782542 38:0.0015313936 39:0.0015313936 40:0.0015313936 41:0 42:0 43:0 44:0 45:0 46:0 47:0 48:0.010719755 49:0.0015313936 50:0.0015313936 51:0.0030627871 52:0 53:0 54:0 55:0.0045941807 56:0 57:0 58:0.010719755 59:0.0015313936 60:0.015313936 61:0.0045941807 62:0 63:0 64:0.0015313936 65:0 66:0.0015313936 67:0.0015313936 68:0 69:0.018376723 70:0 71:0 72:0.0015313936 73:0.0030627871 74:0 75:0 76:0.0030627871 77:0.0015313936 78:0 79:0 80:0.0015313936 81:0.0030627871 82:0 83:0.026033691 84:0 85:0 86:0 87:0.0015313936 88:0 89:0 90:0.0045941807 91:0.0015313936 92:0 93:0 94:0.0015313936 95:0 96:0 97:0.0015313936 98:0 99:0.0015313936 100:0.0030627871 101:0 102:0.0015313936 103:0.0091883614 104:0.0061255743 105:0 106:0 107:0 108:0 109:0 110:0.0015313936 111:0.0015313936 112:0.0045941807 113:0 114:0.0015313936 115:0.0015313936 116:0 117:0.0015313936 118:0 119:0.0030627871 120:0.0076569678 121:0 122:0 123:0 124:0 125:0 126:0.0015313936 127:0 
1 0:0 1:0 2:0 3:0 4:0 5:0 6:0 7:0.0061728395 8:0 9:0 10:0 11:0.018518519 12:0.0061728395 13:0 14:0 15:0 16:0 17:0 18:0 19:0.012345679 20:0 21:0 22:0.012345679 23:0 24:0 25:0 26:0 27:0 28:0 29:0 30:0 31:0.018518519 32:0 33:0.0061728395 34:0 35:0.0061728395 36:0 37:0 38:0 39:0 40:0 41:0 42:0 43:0.024691358 44:0 45:0 46:0 47:0.11111111 48:0 49:0 50:0 51:0 52:0 53:0 54:0 55:0 56:0 57:0 58:0 59:0.0061728395 60:0 61:0 62:0 63:0 64:0.0061728395 65:0.018518519 66:0 67:0 68:0 69:0 70:0 71:0 72:0 73:0.0061728395 74:0 75:0 76:0 77:0 78:0 79:0 80:0 81:0.0061728395 82:0 83:0 84:0 85:0 86:0 87:0.012345679 88:0 89:0 90:0 91:0.0061728395 92:0.0061728395 93:0 94:0 95:0 96:0.024691358 97:0 98:0 99:0 100:0 101:0.0061728395 102:0 103:0 104:0 105:0 106:0.030864198 107:0.024691358 108:0 109:0.0061728395 110:0 111:0 112:0 113:0 114:0 115:0 116:0 117:0.0061728395 118:0 119:0 120:0 121:0 122:0 123:0 124:0 125:0 126:0 127:0 
1 0:0 1:0 2:0.00075103267 3:0.00037551633 4:0.0030041307 5:0.00037551633 6:0.00075103267 7:0.001126549 8:0 9:0.00075103267 10:0.0030041307 11:0.0097634247 12:0.002253098 13:0.0026286143 14:0.001126549 15:0.00075103267 16:0 17:0 18:0.00037551633 19:0.002253098 20:0.001126549 21:0.002253098 22:0.0041306797 23:0 24:0.0060082614 25:0.0037551633 26:0.0018775817 27:0 28:0.00075103267 29:0.003379647 30:0.00037551633 31:0.001126549 32:0.00037551633 33:0.0082613594 34:0.0018775817 35:0.0037551633 36:0.001126549 37:0.0015020653 38:0 39:0.00075103267 40:0.001126549 41:0 42:0.0052572287 43:0.0071348104 44:0.0015020653 45:0 46:0 47:0.030792339 48:0.00037551633 49:0.00037551633 50:0.0071348104 51:0 52:0 53:0 54:0 55:0.0015020653 56:0.00037551633 57:0 58:0.00037551633 59:0.00075103267 60:0.001126549 61:0.00037551633 62:0.010889974 63:0.0026286143 64:0.0018775817 65:0.0037551633 66:0 67:0.0015020653 68:0 69:0.00075103267 70:0.00075103267 71:0.00075103267 72:0.0015020653 73:0.00037551633 74:0 75:0.002253098 76:0.0030041307 77:0 78:0.0184003 79:0.00075103267 80:0.00075103267 81:0.00075103267 82:0.001126549 83:0.001126549 84:0 85:0.0015020653 86:0 87:0.002253098 88:0.002253098 89:0.003379647 90:0 91:0.0037551633 92:0.0015020653 93:0.004506196 94:0.00037551633 95:0.00075103267 96:0.0086368757 97:0.00037551633 98:0.0015020653 99:0.010138941 100:0.001126549 101:0.0037551633 102:0 103:0.00075103267 104:0.00037551633 105:0 106:0.003379647 107:0.021779947 108:0.00075103267 109:0.007885843 110:0.003379647 111:0 112:0.00075103267 113:0.001126549 114:0.001126549 115:0 116:0.00075103267 117:0.0030041307 118:0 119:0 120:0.00075103267 121:0 122:0.013518588 123:0.00037551633 124:0.001126549 125:0 126:0.00037551633 127:0.00037551633 
1 0:0 1:0 2:0.0062695925 3:0 4:0.0062695925 5:0 6:0 7:0.0094043887 8:0 9:0.0062695925 10:0 11:0 12:0.0031347962 13:0 14:0 15:0.0094043887 16:0.0031347962 17:0 18:0.0062695925 19:0 20:0 21:0.0031347962 22:0 23:0 24:0 25:0 26:0.0062695925 27:0 28:0 29:0 30:0 31:0 32:0.0031347962 33:0.0062695925 34:0 35:0 36:0.0062695925 37:0 38:0.0031347962 39:0 40:0.0031347962 41:0 42:0 43:0 44:0.0031347962 45:0 46:0 47:0 48:0 49:0 50:0.0031347962 51:0 52:0 53:0.0031347962 54:0 55:0.012539185 56:0.0031347962 57:0 58:0.012539185 59:0.0062695925 60:0.0062695925 61:0.0094043887 62:0 63:0 64:0 65:0 66:0 67:0.0062695925 68:0 69:0.0031347962 70:0 71:0 72:0 73:0.0031347962 74:0 75:0 76:0.0062695925 77:0 78:0 79:0 80:0 81:0 82:0.0031347962 83:0.012539185 84:0 85:0 86:0 87:0 88:0.0031347962 89:0 90:0.0062695925 91:0.0062695925 92:0 93:0 94:0.0031347962 95:0 96:0.0031347962 97:0 98:0.0062695925 99:0 100:0 101:0 102:0 103:0.0031347962 104:0.0062695925 105:0 106:0 107:0.0062695925 108:0 109:0 110:0 111:0.0031347962 112:0 113:0 114:0.0094043887 115:0 116:0.0031347962 117:0 118:0 119:0.0031347962 120:0 121:0.0031347962 122:0 123:0.0031347962 124:0.0094043887 125:0 126:0 127:0.0031347962 
1 0:0 1:0 2:0 3:0 4:0 5:0 6:0 7:0 8:0 9:0 10:0.0096153846 11:0 12:0 13:0 14:0 15:0.0096153846 16:0 17:0 18:0 19:0 20:0 21:0 22:0.0096153846 23:0 24:0 25:0 26:0 27:0 28:0 29:0 30:0 31:0 32:0 33:0 34:0 35:0.0096153846 36:0.0096153846 37:0.019230769 38:0 39:0 40:0.0096153846 41:0 42:0 43:0 44:0 45:0 46:0 47:0.0096153846 48:0 49:0 50:0 51:0 52:0 53:0 54:0 55:0 56:0 57:0.0096153846 58:0 59:0 60:0 61:0 62:0 63:0 64:0 65:0 66:0 67:0 68:0 69:0.0096153846 70:0 71:0 72:0.0096153846 73:0.0096153846 74:0 75:0 76:0 77:0 78:0 79:0 80:0.019230769 81:0 82:0 83:0.0096153846 84:0 85:0.0096153846 86:0 87:0 88:0 89:0.019230769 90:0 91:0 92:0 93:0 94:0 95:0 96:0 97:0.0096153846 98:0.0096153846 99:0 100:0 101:0 102:0 103:0 104:0.0096153846 105:0 106:0 107:0 108:0 109:0 110:0 111:0 112:0 113:0 114:0 115:0 116:0 117:0 118:0 119:0 120:0 121:0 122:0 123:0 124:0 125:0 126:0 127:0 
1 0:0 1:0 2:0 3:0 4:0.0087719298 5:0 6:0 7:0 8:0.0087719298 9:0 10:0 11:0 12:0.0087719298 13:0 14:0 15:0 16:0 17:0 18:0 19:0.0087719298 20:0.01754386 21:0 22:0 23:0 24:0 25:0 26:0 27:0 28:0.0087719298 29:0 30:0 31:0 32:0 33:0 34:0 35:0 36:0.0087719298 37:0.01754386 38:0 39:0.0087719298 40:0 41:0 42:0 43:0 44:0 45:0 46:0 47:0 48:0 49:0 50:0 51:0 52:0 53:0 54:0 55:0 56:0 57:0 58:0 59:0 60:0 61:0 62:0 63:0.0087719298 64:0 65:0.01754386 66:0 67:0 68:0 69:0.026315789 70:0 71:0 72:0 73:0 74:0 75:0.0087719298 76:0.0087719298 77:0 78:0 79:0 80:0 81:0.0087719298 82:0 83:0.0087719298 84:0 85:0 86:0 87:0 88:0 89:0 90:0 91:0 92:0 93:0 94:0 95:0 96:0 97:0 98:0 99:0 100:0 101:0 102:0.0087719298 103:0.0087719298 104:0 105:0 106:0 107:0 108:0 109:0 110:0.0087719298 111:0 112:0 113:0 114:0.0087719298 115:0.0087719298 116:0 117:0 118:0 119:0.01754386 120:0 121:0 122:0 123:0 124:0 125:0 126:0 127:0 
1 0:0 1:0 2:0.013888889 3:0 4:0.013888889 5:0 6:0 7:0 8:0 9:0 10:0 11:0 12:0 13:0 14:0 15:0.013888889 16:0 17:0 18:0.013888889 19:0 20:0.013888889 21:0 22:0 23:0 24:0 25:0 26:0 27:0 28:0 29:0 30:0 31:0 32:0 33:0 34:0 35:0 36:0.013888889 37:0.027777778 38:0 39:0 40:0.013888889 41:0 42:0 43:0 44:0 45:0 46:0 47:0.013888889 48:0 49:0 50:0 51:0 52:0 53:0 54:0 55:0 56:0 57:0 58:0 59:0 60:0 61:0 62:0 63:0 64:0 65:0 66:0 67:0 68:0 69:0 70:0 71:0.013888889 72:0 73:0 74:0 75:0 76:0 77:0 78:0 79:0 80:0 81:0 82:0 83:0.013888889 84:0 85:0 86:0 87:0 88:0 89:0 90:0 91:0 92:0 93:0 94:0 95:0 96:0 97:0 98:0 99:0 100:0 101:0 102:0 103:0 104:0 105:0 106:0 107:0 108:0 109:0 110:0 111:0 112:0 113:0 114:0.013888889 115:0 116:0.027777778 117:0 118:0 119:0.013888889 120:0 121:0 122:0 123:0 124:0 125:0 126:0 127:0 
1 0:0 1:0 2:0 3:0 4:0.0072992701 5:0.01459854 6:0 7:0 8:0.0072992701 9:0 10:0.0072992701 11:0 12:0 13:0 14:0 15:0.02189781 16:0 17:0 18:0 19:0 20:0 21:0 22:0 23:0 24:0.0072992701 25:0 26:0 27:0 28:0 29:0 30:0 31:0 32:0 33:0 34:0 35:0 36:0.0072992701 37:0 38:0 39:0 40:0.01459854 41:0 42:0 43:0 44:0 45:0 46:0 47:0 48:0 49:0.0072992701 50:0 51:0.0072992701 52:0 53:0 54:0 55:0.01459854 56:0 57:0 58:0.0072992701 59:0.0072992701 60:0.0072992701 61:0 62:0 63:0.0072992701 64:0.0072992701 65:0 66:0 67:0.0072992701 68:0 69:0.0072992701 70:0 71:0 72:0 73:0 74:0 75:0 76:0.0072992701 77:0 78:0 79:0 80:0 81:0 82:0 83:0 84:0 85:0 86:0 87:0.0072992701 88:0 89:0 90:0 91:0 92:0 93:0 94:0.0072992701 95:0 96:0 97:0 98:0 99:0 100:0.02189781 101:0 102:0 103:0 104:0 105:0 106:0 107:0 108:0 109:0 110:0 111:0 112:0 113:0 114:0 115:0.0072992701 116:0.01459854 117:0.0072992701 118:0 119:0.0072992701 120:0.0072992701 121:0 122:0 123:0 124:0 125:0 126:0 127:0 
1 0:0 1:0.0072992701 2:0 3:0 4:0.02189781 5:0.0072992701 6:0 7:0 8:0.0072992701 9:0.01459854 10:0 11:0 12:0 13:0 14:0 15:0.0072992701 16:0 17:0 18:0 19:0 20:0.01459854 21:0 22:0 23:0 24:0 25:0 26:0.0072992701 27:0 28:0 29:0 30:0 31:0 32:0 33:0 34:0 35:0 36:0 37:0.0072992701 38:0 39:0 40:0 41:0 42:0 43:0 44:0 45:0 46:0 47:0.0072992701 48:0.0072992701 49:0 50:0 51:0 52:0 53:0 54:0 55:0 56:0 57:0 58:0.01459854 59:0 60:0 61:0.0072992701 62:0 63:0 64:0.0072992701 65:0 66:0 67:0 68:0 69:0.02189781 70:0 71:0 72:0 73:0 74:0 75:0 76:0 77:0 78:0 79:0 80:0 81:0 82:0 83:0.0072992701 84:0 85:0 86:0 87:0 88:0 89:0 90:0 91:0.0072992701 92:0 93:0 94:0 95:0 96:0.02189781 97:0 98:0 99:0 100:0 101:0 102:0.0072992701 103:0.0072992701 104:0 105:0 106:0 107:0 108:0 109:0 110:0 111:0 112:0 113:0 114:0 115:0 116:0 117:0 118:0 119:0 120:0.0072992701 121:0 122:0 123:0 124:0 125:0 126:0 127:0 
1 0:0 1:0 2:0 3:0 4:0.020833333 5:0 6:0 7:0 8:0 9:0 10:0.020833333 11:0 12:0 13:0 14:0 15:0 16:0 17:0 18:0 19:0 20:0 21:0 22:0 23:0 24:0 25:0 26:0 27:0 28:0.020833333 29:0 30:0 31:0 32:0 33:0 34:0 35:0 36:0 37:0.020833333 38:0.020833333 39:0 40:0 41:0 42:0 43:0 44:0 45:0 46:0 47:0 48:0 49:0 50:0 51:0 52:0 53:0 54:0 55:0 56:0 57:0 58:0 59:0 60:0.020833333 61:0 62:0 63:0 64:0 65:0 66:0 67:0 68:0 69:0.020833333 70:0 71:0 72:0 73:0 74:0 75:0 76:0 77:0 78:0 79:0 80:0 81:0 82:0 83:0 84:0 85:0 86:0 87:0.020833333 88:0 89:0 90:0 91:0 92:0 93:0 94:0 95:0 96:0 97:0 98:0 99:0 100:0 101:0 102:0 103:0 104:0 105:0 106:0 107:0 108:0 109:0 110:0 111:0 112:0.020833333 113:0 114:0 115:0 116:0 117:0 118:0 119:0 120:0 121:0 122:0 123:0 124:0 125:0 126:0 127:0 
1 0:0 1:0 2:0 3:0 4:0 5:0.0044052863 6:0 7:0 8:0 9:0 10:0.013215859 11:0 12:0.0044052863 13:0 14:0.0088105727 15:0.013215859 16:0 17:0 18:0.0044052863 19:0 20:0.0088105727 21:0.0088105727 22:0 23:0 24:0 25:0 26:0 27:0 28:0 29:0 30:0 31:0 32:0.0044052863 33:0 34:0 35:0 36:0.013215859 37:0.0088105727 38:0 39:0.0044052863 40:0.017621145 41:0 42:0 43:0.0044052863 44:0.0088105727 45:0 46:0 47:0 48:0.0088105727 49:0 50:0.0088105727 51:0 52:0 53:0 54:0.0044052863 55:0.022026432 56:0 57:0.0044052863 58:0.017621145 59:0 60:0 61:0.0044052863 62:0 63:0 64:0 65:0.0044052863 66:0.0044052863 67:0.0088105727 68:0 69:0.0088105727 70:0 71:0 72:0 73:0 74:0 75:0 76:0.0044052863 77:0.0044052863 78:0 79:0 80:0 81:0 82:0.0044052863 83:0.022026432 84:0 85:0 86:0 87:0 88:0.0044052863 89:0 90:0 91:0 92:0 93:0 94:0.0044052863 95:0 96:0 97:0 98:0.0044052863 99:0 100:0 101:0 102:0 103:0 104:0.0044052863 105:0 106:0 107:0 108:0 109:0.013215859 110:0.0088105727 111:0 112:0 113:0 114:0.013215859 115:0 116:0.0088105727 117:0 118:0 119:0.0044052863 120:0.0044052863 121:0 122:0.0044052863 123:0 124:0 125:0 126:0 127:0 
1 0:0 1:0 2:0 3:0 4:0.010752688 5:0 6:0 7:0 8:0.0053763441 9:0.0053763441 10:0 11:0 12:0 13:0 14:0 15:0.010752688 16:0 17:0 18:0 19:0.0053763441 20:0.0053763441 21:0 22:0.0053763441 23:0 24:0 25:0 26:0 27:0 28:0.0053763441 29:0 30:0 31:0 32:0.0053763441 33:0 34:0 35:0 36:0.0053763441 37:0.010752688 38:0 39:0 40:0.010752688 41:0 42:0 43:0 44:0 45:0 46:0 47:0.0053763441 48:0.010752688 49:0 50:0 51:0 52:0 53:0 54:0.0053763441 55:0.0053763441 56:0 57:0 58:0.0053763441 59:0 60:0.016129032 61:0.0053763441 62:0 63:0 64:0 65:0.0053763441 66:0 67:0.0053763441 68:0 69:0.0053763441 70:0 71:0 72:0 73:0 74:0 75:0 76:0.010752688 77:0 78:0 79:0 80:0 81:0 82:0 83:0.016129032 84:0 85:0 86:0 87:0 88:0 89:0.0053763441 90:0 91:0 92:0 93:0 94:0.0053763441 95:0 96:0.010752688 97:0 98:0 99:0 100:0 101:0 102:0 103:0.0053763441 104:0 105:0 106:0 107:0 108:0 109:0 110:0.0053763441 111:0 112:0.010752688 113:0 114:0.010752688 115:0 116:0.0053763441 117:0 118:0 119:0.0053763441 120:0.0053763441 121:0 122:0 123:0 124:0 125:0 126:0 127:0 
1 0:0 1:0 2:0.0055865922 3:0 4:0.016759777 5:0.0055865922 6:0 7:0 8:0.0055865922 9:0 10:0 11:0.0055865922 12:0 13:0.0055865922 14:0 15:0 16:0 17:0 18:0 19:0 20:0 21:0.0055865922 22:0 23:0 24:0.011173184 25:0 26:0 27:0 28:0.0055865922 29:0 30:0.0055865922 31:0 32:0 33:0 34:0 35:0.0055865922 36:0.0055865922 37:0 38:0 39:0 40:0 41:0 42:0 43:0.0055865922 44:0 45:0 46:0 47:0 48:0 49:0 50:0 51:0 52:0 53:0 54:0 55:0.0055865922 56:0 57:0 58:0.0055865922 59:0 60:0.0055865922 61:0.0055865922 62:0 63:0 64:0.0055865922 65:0 66:0.011173184 67:0 68:0 69:0.0055865922 70:0 71:0 72:0.0055865922 73:0 74:0 75:0 76:0.011173184 77:0 78:0 79:0 80:0 81:0 82:0 83:0.011173184 84:0 85:0 86:0 87:0 88:0 89:0.0055865922 90:0 91:0 92:0 93:0 94:0 95:0 96:0.016759777 97:0.011173184 98:0 99:0 100:0.0055865922 101:0 102:0 103:0 104:0.011173184 105:0 106:0 107:0 108:0 109:0.0055865922 110:0 111:0.0055865922 112:0.0055865922 113:0 114:0 115:0 116:0 117:0 118:0 119:0.011173184 120:0 121:0 122:0 123:0 124:0 125:0 126:0 127:0 
